<?xml version="1.0"?>
<opencv_storage>
<cascade>
  <stageType>BOOST</stageType>
  <featureType>HAAR</featureType>
  <height>32</height>
  <width>42</width>
  <stageParams>
    <boostType>GAB</boostType>
    <minHitRate>9.9500000476837158e-01</minHitRate>
    <maxFalseAlarm>5.0000000000000000e-01</maxFalseAlarm>
    <weightTrimRate>9.4999998807907104e-01</weightTrimRate>
    <maxDepth>1</maxDepth>
    <maxWeakCount>100</maxWeakCount></stageParams>
  <featureParams>
    <maxCatCount>0</maxCatCount>
    <featSize>1</featSize>
    <mode>BASIC</mode></featureParams>
  <stageNum>6</stageNum>
  <stages>
    <!-- stage 0 -->
    <_>
      <maxWeakCount>2</maxWeakCount>
      <stageThreshold>-1.1783971637487411e-01</stageThreshold>
      <weakClassifiers>
        <_>
          <internalNodes>
            0 -1 6 -1.4855167269706726e-01</internalNodes>
          <leafValues>
            1. -9.6078431606292725e-01</leafValues></_>
        <_>
          <internalNodes>
            0 -1 1 -1.3586744666099548e-02</internalNodes>
          <leafValues>
            8.4294462203979492e-01 -9.9343568086624146e-01</leafValues></_></weakClassifiers></_>
    <!-- stage 1 -->
    <_>
      <maxWeakCount>2</maxWeakCount>
      <stageThreshold>-1.4482459425926208e-01</stageThreshold>
      <weakClassifiers>
        <_>
          <internalNodes>
            0 -1 7 3.2459534704685211e-02</internalNodes>
          <leafValues>
            -9.8657715320587158e-01 8.7500000000000000e-01</leafValues></_>
        <_>
          <internalNodes>
            0 -1 11 3.3304460346698761e-02</internalNodes>
          <leafValues>
            -1. 8.4175258874893188e-01</leafValues></_></weakClassifiers></_>
    <!-- stage 2 -->
    <_>
      <maxWeakCount>2</maxWeakCount>
      <stageThreshold>-1.9378067553043365e-01</stageThreshold>
      <weakClassifiers>
        <_>
          <internalNodes>
            0 -1 8 -3.5369262099266052e-02</internalNodes>
          <leafValues>
            9.0163934230804443e-01 -9.7342193126678467e-01</leafValues></_>
        <_>
          <internalNodes>
            0 -1 3 -1.0613411664962769e-01</internalNodes>
          <leafValues>
            7.7964127063751221e-01 -9.6549868583679199e-01</leafValues></_></weakClassifiers></_>
    <!-- stage 3 -->
    <_>
      <maxWeakCount>2</maxWeakCount>
      <stageThreshold>-3.0895569920539856e-01</stageThreshold>
      <weakClassifiers>
        <_>
          <internalNodes>
            0 -1 0 -1.8331184983253479e-02</internalNodes>
          <leafValues>
            6.6666668653488159e-01 -9.8620688915252686e-01</leafValues></_>
        <_>
          <internalNodes>
            0 -1 2 -1.7743607982993126e-02</internalNodes>
          <leafValues>
            7.0598024129867554e-01 -9.7562235593795776e-01</leafValues></_></weakClassifiers></_>
    <!-- stage 4 -->
    <_>
      <maxWeakCount>2</maxWeakCount>
      <stageThreshold>-3.1614625453948975e-01</stageThreshold>
      <weakClassifiers>
        <_>
          <internalNodes>
            0 -1 10 2.1212011575698853e-02</internalNodes>
          <leafValues>
            -9.3311035633087158e-01 6.5079367160797119e-01</leafValues></_>
        <_>
          <internalNodes>
            0 -1 9 -9.1088853776454926e-02</internalNodes>
          <leafValues>
            6.5227639675140381e-01 -9.6693986654281616e-01</leafValues></_></weakClassifiers></_>
    <!-- stage 5 -->
    <_>
      <maxWeakCount>2</maxWeakCount>
      <stageThreshold>-3.7393161654472351e-01</stageThreshold>
      <weakClassifiers>
        <_>
          <internalNodes>
            0 -1 5 -2.4154129624366760e-01</internalNodes>
          <leafValues>
            8.0952382087707520e-01 -9.6655517816543579e-01</leafValues></_>
        <_>
          <internalNodes>
            0 -1 4 -2.9115971177816391e-02</internalNodes>
          <leafValues>
            5.9262359142303467e-01 -9.7720348834991455e-01</leafValues></_></weakClassifiers></_></stages>
  <features>
    <_>
      <rects>
        <_>
          0 14 8 13 -1.</_>
        <_>
          4 14 4 13 2.</_></rects>
      <tilted>0</tilted></_>
    <_>
      <rects>
        <_>
          2 11 9 16 -1.</_>
        <_>
          5 11 3 16 3.</_></rects>
      <tilted>0</tilted></_>
    <_>
      <rects>
        <_>
          7 23 29 9 -1.</_>
        <_>
          7 26 29 3 3.</_></rects>
      <tilted>0</tilted></_>
    <_>
      <rects>
        <_>
          8 0 18 8 -1.</_>
        <_>
          8 4 18 4 2.</_></rects>
      <tilted>0</tilted></_>
    <_>
      <rects>
        <_>
          9 1 12 31 -1.</_>
        <_>
          13 1 4 31 3.</_></rects>
      <tilted>0</tilted></_>
    <_>
      <rects>
        <_>
          11 0 18 28 -1.</_>
        <_>
          11 14 18 14 2.</_></rects>
      <tilted>0</tilted></_>
    <_>
      <rects>
        <_>
          12 0 16 10 -1.</_>
        <_>
          12 5 16 5 2.</_></rects>
      <tilted>0</tilted></_>
    <_>
      <rects>
        <_>
          13 0 18 4 -1.</_>
        <_>
          19 0 6 4 3.</_></rects>
      <tilted>0</tilted></_>
    <_>
      <rects>
        <_>
          19 0 3 12 -1.</_>
        <_>
          19 6 3 6 2.</_></rects>
      <tilted>0</tilted></_>
    <_>
      <rects>
        <_>
          21 1 21 30 -1.</_>
        <_>
          28 1 7 30 3.</_></rects>
      <tilted>0</tilted></_>
    <_>
      <rects>
        <_>
          29 0 12 6 -1.</_>
        <_>
          33 0 4 6 3.</_></rects>
      <tilted>0</tilted></_>
    <_>
      <rects>
        <_>
          32 9 10 21 -1.</_>
        <_>
          37 9 5 21 2.</_></rects>
      <tilted>0</tilted></_></features></cascade>
</opencv_storage>
