<?xml version="1.0"?>
<opencv_storage>
<cascade>
  <stageType>BOOST</stageType>
  <featureType>HAAR</featureType>
  <height>32</height>
  <width>32</width>
  <stageParams>
    <boostType>GAB</boostType>
    <minHitRate>9.9500000476837158e-01</minHitRate>
    <maxFalseAlarm>5.0000000000000000e-01</maxFalseAlarm>
    <weightTrimRate>9.4999998807907104e-01</weightTrimRate>
    <maxDepth>1</maxDepth>
    <maxWeakCount>100</maxWeakCount></stageParams>
  <featureParams>
    <maxCatCount>0</maxCatCount>
    <featSize>1</featSize>
    <mode>BASIC</mode></featureParams>
  <stageNum>15</stageNum>
  <stages>
    <!-- stage 0 -->
    <_>
      <maxWeakCount>3</maxWeakCount>
      <stageThreshold>-9.4597411155700684e-01</stageThreshold>
      <weakClassifiers>
        <_>
          <internalNodes>
            0 -1 17 9.8861958831548691e-03</internalNodes>
          <leafValues>
            -9.4684386253356934e-01 8.5365855693817139e-01</leafValues></_>
        <_>
          <internalNodes>
            0 -1 21 8.6488276720046997e-02</internalNodes>
          <leafValues>
            -8.8760000467300415e-01 7.8755235671997070e-01</leafValues></_>
        <_>
          <internalNodes>
            0 -1 12 1.2452293187379837e-02</internalNodes>
          <leafValues>
            -7.8668260574340820e-01 9.1149097681045532e-01</leafValues></_></weakClassifiers></_>
    <!-- stage 1 -->
    <_>
      <maxWeakCount>3</maxWeakCount>
      <stageThreshold>-1.0108635425567627e+00</stageThreshold>
      <weakClassifiers>
        <_>
          <internalNodes>
            0 -1 30 1.6257267445325851e-02</internalNodes>
          <leafValues>
            -8.3281731605529785e-01 8.9999997615814209e-01</leafValues></_>
        <_>
          <internalNodes>
            0 -1 5 -1.7818406224250793e-02</internalNodes>
          <leafValues>
            6.3646185398101807e-01 -8.6049997806549072e-01</leafValues></_>
        <_>
          <internalNodes>
            0 -1 51 2.1091930568218231e-02</internalNodes>
          <leafValues>
            -7.8721457719802856e-01 6.8245375156402588e-01</leafValues></_></weakClassifiers></_>
    <!-- stage 2 -->
    <_>
      <maxWeakCount>3</maxWeakCount>
      <stageThreshold>-1.1623935699462891e+00</stageThreshold>
      <weakClassifiers>
        <_>
          <internalNodes>
            0 -1 43 1.1472799628973007e-01</internalNodes>
          <leafValues>
            -9.2280703783035278e-01 4.8979592323303223e-01</leafValues></_>
        <_>
          <internalNodes>
            0 -1 48 1.1131657287478447e-02</internalNodes>
          <leafValues>
            -8.8583248853683472e-01 4.1068696975708008e-01</leafValues></_>
        <_>
          <internalNodes>
            0 -1 32 -3.5316698253154755e-02</internalNodes>
          <leafValues>
            7.2997957468032837e-01 -6.5027350187301636e-01</leafValues></_></weakClassifiers></_>
    <!-- stage 3 -->
    <_>
      <maxWeakCount>3</maxWeakCount>
      <stageThreshold>-1.2467954158782959e+00</stageThreshold>
      <weakClassifiers>
        <_>
          <internalNodes>
            0 -1 26 -1.9898828119039536e-02</internalNodes>
          <leafValues>
            7.5757575035095215e-01 -8.3596211671829224e-01</leafValues></_>
        <_>
          <internalNodes>
            0 -1 16 -1.6653032973408699e-02</internalNodes>
          <leafValues>
            3.3531197905540466e-01 -9.4660085439682007e-01</leafValues></_>
        <_>
          <internalNodes>
            0 -1 23 -3.3087238669395447e-02</internalNodes>
          <leafValues>
            5.5110234022140503e-01 -7.4614518880844116e-01</leafValues></_></weakClassifiers></_>
    <!-- stage 4 -->
    <_>
      <maxWeakCount>3</maxWeakCount>
      <stageThreshold>-8.1904840469360352e-01</stageThreshold>
      <weakClassifiers>
        <_>
          <internalNodes>
            0 -1 31 2.1740714088082314e-02</internalNodes>
          <leafValues>
            -7.9456192255020142e-01 9.2307692766189575e-01</leafValues></_>
        <_>
          <internalNodes>
            0 -1 19 -1.1311347782611847e-01</internalNodes>
          <leafValues>
            7.2433555126190186e-01 -6.4926230907440186e-01</leafValues></_>
        <_>
          <internalNodes>
            0 -1 2 -6.3636600971221924e-02</internalNodes>
          <leafValues>
            6.2477582693099976e-01 -6.6904568672180176e-01</leafValues></_></weakClassifiers></_>
    <!-- stage 5 -->
    <_>
      <maxWeakCount>4</maxWeakCount>
      <stageThreshold>-8.7178474664688110e-01</stageThreshold>
      <weakClassifiers>
        <_>
          <internalNodes>
            0 -1 37 -2.5527164340019226e-02</internalNodes>
          <leafValues>
            8.8461536169052124e-01 -7.8851962089538574e-01</leafValues></_>
        <_>
          <internalNodes>
            0 -1 11 1.3776590116322041e-02</internalNodes>
          <leafValues>
            -7.1142369508743286e-01 6.0810261964797974e-01</leafValues></_>
        <_>
          <internalNodes>
            0 -1 8 1.6401473432779312e-02</internalNodes>
          <leafValues>
            -9.4378149509429932e-01 3.7104699015617371e-01</leafValues></_>
        <_>
          <internalNodes>
            0 -1 27 -9.7895716316998005e-04</internalNodes>
          <leafValues>
            -1. 2.5711157917976379e-01</leafValues></_></weakClassifiers></_>
    <!-- stage 6 -->
    <_>
      <maxWeakCount>4</maxWeakCount>
      <stageThreshold>-1.3708205223083496e+00</stageThreshold>
      <weakClassifiers>
        <_>
          <internalNodes>
            0 -1 40 -6.9908322766423225e-03</internalNodes>
          <leafValues>
            6.3888889551162720e-01 -8.3922827243804932e-01</leafValues></_>
        <_>
          <internalNodes>
            0 -1 14 1.8886625766754150e-02</internalNodes>
          <leafValues>
            -5.7567495107650757e-01 8.5608488321304321e-01</leafValues></_>
        <_>
          <internalNodes>
            0 -1 15 -1.2770408391952515e-01</internalNodes>
          <leafValues>
            9.3337756395339966e-01 -4.9590155482292175e-01</leafValues></_>
        <_>
          <internalNodes>
            0 -1 20 2.4318178475368768e-04</internalNodes>
          <leafValues>
            5.3998422622680664e-01 -1.</leafValues></_></weakClassifiers></_>
    <!-- stage 7 -->
    <_>
      <maxWeakCount>3</maxWeakCount>
      <stageThreshold>-1.1290190219879150e+00</stageThreshold>
      <weakClassifiers>
        <_>
          <internalNodes>
            0 -1 1 3.8323593139648438e-01</internalNodes>
          <leafValues>
            -8.0564260482788086e-01 6.5625000000000000e-01</leafValues></_>
        <_>
          <internalNodes>
            0 -1 42 1.1275779455900192e-02</internalNodes>
          <leafValues>
            -7.4214875698089600e-01 5.9838145971298218e-01</leafValues></_>
        <_>
          <internalNodes>
            0 -1 24 -1.8912929226644337e-04</internalNodes>
          <leafValues>
            -8.0422157049179077e-01 4.1877242922782898e-01</leafValues></_></weakClassifiers></_>
    <!-- stage 8 -->
    <_>
      <maxWeakCount>3</maxWeakCount>
      <stageThreshold>-9.4918572902679443e-01</stageThreshold>
      <weakClassifiers>
        <_>
          <internalNodes>
            0 -1 9 4.1285239160060883e-02</internalNodes>
          <leafValues>
            -7.7710843086242676e-01 8.4313726425170898e-01</leafValues></_>
        <_>
          <internalNodes>
            0 -1 49 2.2944048047065735e-02</internalNodes>
          <leafValues>
            -6.0893851518630981e-01 7.6091384887695313e-01</leafValues></_>
        <_>
          <internalNodes>
            0 -1 45 -6.3916569342836738e-04</internalNodes>
          <leafValues>
            4.3686124682426453e-01 -7.9294568300247192e-01</leafValues></_></weakClassifiers></_>
    <!-- stage 9 -->
    <_>
      <maxWeakCount>5</maxWeakCount>
      <stageThreshold>-6.2665700912475586e-01</stageThreshold>
      <weakClassifiers>
        <_>
          <internalNodes>
            0 -1 25 -2.0312072709202766e-02</internalNodes>
          <leafValues>
            6.4179104566574097e-01 -8.1645572185516357e-01</leafValues></_>
        <_>
          <internalNodes>
            0 -1 6 1.9952021539211273e-02</internalNodes>
          <leafValues>
            -5.9503465890884399e-01 7.0666491985321045e-01</leafValues></_>
        <_>
          <internalNodes>
            0 -1 47 5.3290545940399170e-02</internalNodes>
          <leafValues>
            -4.2775765061378479e-01 8.7690693140029907e-01</leafValues></_>
        <_>
          <internalNodes>
            0 -1 46 4.0558935143053532e-04</internalNodes>
          <leafValues>
            4.0308290719985962e-01 -1.</leafValues></_>
        <_>
          <internalNodes>
            0 -1 0 3.2906186580657959e-01</internalNodes>
          <leafValues>
            -4.5010945200920105e-01 8.0950814485549927e-01</leafValues></_></weakClassifiers></_>
    <!-- stage 10 -->
    <_>
      <maxWeakCount>4</maxWeakCount>
      <stageThreshold>-1.3259409666061401e+00</stageThreshold>
      <weakClassifiers>
        <_>
          <internalNodes>
            0 -1 52 -3.5310316830873489e-02</internalNodes>
          <leafValues>
            8.7234044075012207e-01 -7.6190477609634399e-01</leafValues></_>
        <_>
          <internalNodes>
            0 -1 44 4.8085832968354225e-03</internalNodes>
          <leafValues>
            -6.1715149879455566e-01 7.5067830085754395e-01</leafValues></_>
        <_>
          <internalNodes>
            0 -1 7 -1.8871262669563293e-02</internalNodes>
          <leafValues>
            8.5828363895416260e-01 -4.8059853911399841e-01</leafValues></_>
        <_>
          <internalNodes>
            0 -1 36 1.8178696336690336e-04</internalNodes>
          <leafValues>
            5.4929345846176147e-01 -8.0516833066940308e-01</leafValues></_></weakClassifiers></_>
    <!-- stage 11 -->
    <_>
      <maxWeakCount>3</maxWeakCount>
      <stageThreshold>-1.0265772342681885e+00</stageThreshold>
      <weakClassifiers>
        <_>
          <internalNodes>
            0 -1 10 8.9357523247599602e-03</internalNodes>
          <leafValues>
            -7.9245281219482422e-01 5.6923079490661621e-01</leafValues></_>
        <_>
          <internalNodes>
            0 -1 50 -4.3781727552413940e-02</internalNodes>
          <leafValues>
            7.7236956357955933e-01 -6.4477467536926270e-01</leafValues></_>
        <_>
          <internalNodes>
            0 -1 29 -6.6453916952013969e-04</internalNodes>
          <leafValues>
            -9.9089545011520386e-01 4.1065022349357605e-01</leafValues></_></weakClassifiers></_>
    <!-- stage 12 -->
    <_>
      <maxWeakCount>5</maxWeakCount>
      <stageThreshold>-1.2581807374954224e+00</stageThreshold>
      <weakClassifiers>
        <_>
          <internalNodes>
            0 -1 13 5.6315856054425240e-03</internalNodes>
          <leafValues>
            -7.6899695396423340e-01 7.0370370149612427e-01</leafValues></_>
        <_>
          <internalNodes>
            0 -1 33 -5.6343749165534973e-02</internalNodes>
          <leafValues>
            6.7853969335556030e-01 -6.2022680044174194e-01</leafValues></_>
        <_>
          <internalNodes>
            0 -1 28 -8.7791327387094498e-03</internalNodes>
          <leafValues>
            4.7285661101341248e-01 -7.8696554899215698e-01</leafValues></_>
        <_>
          <internalNodes>
            0 -1 3 1.4414326287806034e-03</internalNodes>
          <leafValues>
            -6.9972443580627441e-01 5.8842402696609497e-01</leafValues></_>
        <_>
          <internalNodes>
            0 -1 35 -4.8762210644781590e-04</internalNodes>
          <leafValues>
            -9.3023765087127686e-01 4.1520780324935913e-01</leafValues></_></weakClassifiers></_>
    <!-- stage 13 -->
    <_>
      <maxWeakCount>3</maxWeakCount>
      <stageThreshold>-1.3893715143203735e+00</stageThreshold>
      <weakClassifiers>
        <_>
          <internalNodes>
            0 -1 38 -7.6467925682663918e-03</internalNodes>
          <leafValues>
            6.2500000000000000e-01 -7.9937303066253662e-01</leafValues></_>
        <_>
          <internalNodes>
            0 -1 39 2.8637715149670839e-04</internalNodes>
          <leafValues>
            4.0279707312583923e-01 -8.8072562217712402e-01</leafValues></_>
        <_>
          <internalNodes>
            0 -1 34 3.1933916034176946e-04</internalNodes>
          <leafValues>
            2.9072710871696472e-01 -1.</leafValues></_></weakClassifiers></_>
    <!-- stage 14 -->
    <_>
      <maxWeakCount>4</maxWeakCount>
      <stageThreshold>-8.9062500000000000e-01</stageThreshold>
      <weakClassifiers>
        <_>
          <internalNodes>
            0 -1 22 2.2168412804603577e-02</internalNodes>
          <leafValues>
            -7.3177844285964966e-01 8.9999997615814209e-01</leafValues></_>
        <_>
          <internalNodes>
            0 -1 18 8.6051784455776215e-03</internalNodes>
          <leafValues>
            -8.3544492721557617e-01 3.3913606405258179e-01</leafValues></_>
        <_>
          <internalNodes>
            0 -1 41 1.8989254022017121e-04</internalNodes>
          <leafValues>
            3.7299445271492004e-01 -8.7865263223648071e-01</leafValues></_>
        <_>
          <internalNodes>
            0 -1 4 -2.2397659718990326e-02</internalNodes>
          <leafValues>
            3.8066998124122620e-01 -8.3468490839004517e-01</leafValues></_></weakClassifiers></_></stages>
  <features>
    <_>
      <rects>
        <_>
          0 0 26 18 -1.</_>
        <_>
          0 9 26 9 2.</_></rects>
      <tilted>0</tilted></_>
    <_>
      <rects>
        <_>
          0 0 32 18 -1.</_>
        <_>
          0 9 32 9 2.</_></rects>
      <tilted>0</tilted></_>
    <_>
      <rects>
        <_>
          0 3 16 28 -1.</_>
        <_>
          0 3 8 14 2.</_>
        <_>
          8 17 8 14 2.</_></rects>
      <tilted>0</tilted></_>
    <_>
      <rects>
        <_>
          0 5 9 7 -1.</_>
        <_>
          3 5 3 7 3.</_></rects>
      <tilted>0</tilted></_>
    <_>
      <rects>
        <_>
          0 13 24 10 -1.</_>
        <_>
          0 13 12 5 2.</_>
        <_>
          12 18 12 5 2.</_></rects>
      <tilted>0</tilted></_>
    <_>
      <rects>
        <_>
          0 14 10 14 -1.</_>
        <_>
          0 14 5 7 2.</_>
        <_>
          5 21 5 7 2.</_></rects>
      <tilted>0</tilted></_>
    <_>
      <rects>
        <_>
          2 2 10 7 -1.</_>
        <_>
          7 2 5 7 2.</_></rects>
      <tilted>0</tilted></_>
    <_>
      <rects>
        <_>
          2 5 30 1 -1.</_>
        <_>
          12 5 10 1 3.</_></rects>
      <tilted>0</tilted></_>
    <_>
      <rects>
        <_>
          2 22 23 10 -1.</_>
        <_>
          2 27 23 5 2.</_></rects>
      <tilted>0</tilted></_>
    <_>
      <rects>
        <_>
          3 0 4 14 -1.</_>
        <_>
          3 7 4 7 2.</_></rects>
      <tilted>0</tilted></_>
    <_>
      <rects>
        <_>
          3 7 4 10 -1.</_>
        <_>
          3 7 2 5 2.</_>
        <_>
          5 12 2 5 2.</_></rects>
      <tilted>0</tilted></_>
    <_>
      <rects>
        <_>
          3 13 6 6 -1.</_>
        <_>
          6 13 3 6 2.</_></rects>
      <tilted>0</tilted></_>
    <_>
      <rects>
        <_>
          4 1 6 19 -1.</_>
        <_>
          6 1 2 19 3.</_></rects>
      <tilted>0</tilted></_>
    <_>
      <rects>
        <_>
          4 12 2 11 -1.</_>
        <_>
          5 12 1 11 2.</_></rects>
      <tilted>0</tilted></_>
    <_>
      <rects>
        <_>
          5 0 2 14 -1.</_>
        <_>
          5 7 2 7 2.</_></rects>
      <tilted>0</tilted></_>
    <_>
      <rects>
        <_>
          5 0 27 12 -1.</_>
        <_>
          14 0 9 12 3.</_></rects>
      <tilted>0</tilted></_>
    <_>
      <rects>
        <_>
          5 8 18 21 -1.</_>
        <_>
          11 8 6 21 3.</_></rects>
      <tilted>0</tilted></_>
    <_>
      <rects>
        <_>
          5 11 6 12 -1.</_>
        <_>
          7 11 2 12 3.</_></rects>
      <tilted>0</tilted></_>
    <_>
      <rects>
        <_>
          5 11 6 17 -1.</_>
        <_>
          7 11 2 17 3.</_></rects>
      <tilted>0</tilted></_>
    <_>
      <rects>
        <_>
          5 16 18 15 -1.</_>
        <_>
          5 21 18 5 3.</_></rects>
      <tilted>0</tilted></_>
    <_>
      <rects>
        <_>
          6 8 8 1 -1.</_>
        <_>
          10 8 4 1 2.</_></rects>
      <tilted>0</tilted></_>
    <_>
      <rects>
        <_>
          6 8 20 12 -1.</_>
        <_>
          6 12 20 4 3.</_></rects>
      <tilted>0</tilted></_>
    <_>
      <rects>
        <_>
          8 0 13 4 -1.</_>
        <_>
          8 2 13 2 2.</_></rects>
      <tilted>0</tilted></_>
    <_>
      <rects>
        <_>
          8 4 17 9 -1.</_>
        <_>
          8 7 17 3 3.</_></rects>
      <tilted>0</tilted></_>
    <_>
      <rects>
        <_>
          8 8 4 1 -1.</_>
        <_>
          10 8 2 1 2.</_></rects>
      <tilted>0</tilted></_>
    <_>
      <rects>
        <_>
          8 13 6 7 -1.</_>
        <_>
          10 13 2 7 3.</_></rects>
      <tilted>0</tilted></_>
    <_>
      <rects>
        <_>
          8 13 6 9 -1.</_>
        <_>
          10 13 2 9 3.</_></rects>
      <tilted>0</tilted></_>
    <_>
      <rects>
        <_>
          9 8 6 3 -1.</_>
        <_>
          12 8 3 3 2.</_></rects>
      <tilted>0</tilted></_>
    <_>
      <rects>
        <_>
          10 3 12 18 -1.</_>
        <_>
          14 3 4 18 3.</_></rects>
      <tilted>0</tilted></_>
    <_>
      <rects>
        <_>
          10 9 8 1 -1.</_>
        <_>
          14 9 4 1 2.</_></rects>
      <tilted>0</tilted></_>
    <_>
      <rects>
        <_>
          10 10 6 9 -1.</_>
        <_>
          12 10 2 9 3.</_></rects>
      <tilted>0</tilted></_>
    <_>
      <rects>
        <_>
          10 12 6 6 -1.</_>
        <_>
          12 12 2 6 3.</_></rects>
      <tilted>0</tilted></_>
    <_>
      <rects>
        <_>
          11 1 8 12 -1.</_>
        <_>
          11 5 8 4 3.</_></rects>
      <tilted>0</tilted></_>
    <_>
      <rects>
        <_>
          12 2 9 12 -1.</_>
        <_>
          12 6 9 4 3.</_></rects>
      <tilted>0</tilted></_>
    <_>
      <rects>
        <_>
          12 6 6 1 -1.</_>
        <_>
          14 6 2 1 3.</_></rects>
      <tilted>0</tilted></_>
    <_>
      <rects>
        <_>
          12 6 6 2 -1.</_>
        <_>
          14 6 2 2 3.</_></rects>
      <tilted>0</tilted></_>
    <_>
      <rects>
        <_>
          12 8 4 2 -1.</_>
        <_>
          14 8 2 2 2.</_></rects>
      <tilted>0</tilted></_>
    <_>
      <rects>
        <_>
          12 10 6 11 -1.</_>
        <_>
          14 10 2 11 3.</_></rects>
      <tilted>0</tilted></_>
    <_>
      <rects>
        <_>
          14 6 3 12 -1.</_>
        <_>
          15 6 1 12 3.</_></rects>
      <tilted>0</tilted></_>
    <_>
      <rects>
        <_>
          14 8 9 1 -1.</_>
        <_>
          17 8 3 1 3.</_></rects>
      <tilted>0</tilted></_>
    <_>
      <rects>
        <_>
          14 10 3 12 -1.</_>
        <_>
          15 10 1 12 3.</_></rects>
      <tilted>0</tilted></_>
    <_>
      <rects>
        <_>
          15 8 6 1 -1.</_>
        <_>
          17 8 2 1 3.</_></rects>
      <tilted>0</tilted></_>
    <_>
      <rects>
        <_>
          15 11 9 9 -1.</_>
        <_>
          18 11 3 9 3.</_></rects>
      <tilted>0</tilted></_>
    <_>
      <rects>
        <_>
          16 6 9 18 -1.</_>
        <_>
          16 12 9 6 3.</_></rects>
      <tilted>0</tilted></_>
    <_>
      <rects>
        <_>
          16 11 3 8 -1.</_>
        <_>
          17 11 1 8 3.</_></rects>
      <tilted>0</tilted></_>
    <_>
      <rects>
        <_>
          17 30 12 1 -1.</_>
        <_>
          23 30 6 1 2.</_></rects>
      <tilted>0</tilted></_>
    <_>
      <rects>
        <_>
          19 3 2 6 -1.</_>
        <_>
          19 3 1 3 2.</_>
        <_>
          20 6 1 3 2.</_></rects>
      <tilted>0</tilted></_>
    <_>
      <rects>
        <_>
          20 1 12 11 -1.</_>
        <_>
          26 1 6 11 2.</_></rects>
      <tilted>0</tilted></_>
    <_>
      <rects>
        <_>
          20 9 9 11 -1.</_>
        <_>
          23 9 3 11 3.</_></rects>
      <tilted>0</tilted></_>
    <_>
      <rects>
        <_>
          23 14 8 10 -1.</_>
        <_>
          23 14 4 5 2.</_>
        <_>
          27 19 4 5 2.</_></rects>
      <tilted>0</tilted></_>
    <_>
      <rects>
        <_>
          24 3 8 15 -1.</_>
        <_>
          28 3 4 15 2.</_></rects>
      <tilted>0</tilted></_>
    <_>
      <rects>
        <_>
          24 10 8 20 -1.</_>
        <_>
          24 10 4 10 2.</_>
        <_>
          28 20 4 10 2.</_></rects>
      <tilted>0</tilted></_>
    <_>
      <rects>
        <_>
          26 4 6 15 -1.</_>
        <_>
          29 4 3 15 2.</_></rects>
      <tilted>0</tilted></_></features></cascade>
</opencv_storage>
